{"bias":[[0.031293905246193306,-0.06628476899937277,0.10626067915333734,0.41540697512059815,0.08205773861510486,-0.41061433787917145,-0.9522533001469656,0.6664672232267445,0.7379452933111268,-0.18039115542218967,0.6166409718576084,-0.473943131533446,0.7735270657049178,-0.6031638273140205,0.9019879646254416,0.5129278741418587],[0.3186409829032945,-0.5180983982356915,0.09025307407016475,-0.6097579661372298,-0.05733046184263127,0.5075357692561334,0.8185133244092556,0.6390349711896451],[1.0145310928321256,-1.6058976221941925]],"hidden_activation":"sigmoid","learning_rate":0.1,"loss":"bce","output_activation":"softmax","weights":[[[-0.5147942355132543,0.09075368627967126,-1.295507121588703,-0.6158912280251205,-0.7405934097224544,-1.0811408338931392,-1.181090346627248,-1.4780206696441258,0.7877744318701598,-0.059928945256765724,-1.5035754527131118,-0.13043573638348832,0.29638918066909664,-0.14016516364096757,-0.6865135517415472,0.3186766924401275,0.1506845206804973,0.06504932485636594,1.2047835447900421,-0.7291750932435233,-0.7868923236293922,-0.6188001110288694,-0.22761214810779717,-1.101156611067659,-0.5550538594790084,-1.506123834376976,-1.7129931366005018,-2.0847452616686715,0.2016415597495606,0.45676420260620476],[-0.8738805501564202,-0.36559293541322063,-0.23091300345523388,-1.1136463386142446,-0.23440972593085196,0.6299025270349038,-0.2691394148748097,0.15939233901216018,-0.07906539374598821,-0.5024927348097185,-0.733745404293345,0.2230075506309248,0.30124878065814414,0.8302109803448883,-0.9361173595702067,-0.6738466103387065,0.004604728150209057,0.6872518212494014,-0.744853360267524,-0.5516933898338194,0.43455774192738233,-0.829654476796285,0.022366642890396554,-0.951057605335413,-0.6084665112985949,-0.6165489715834716,0.22140209136460876,-1.3152757024526176,0.412473370203469,-0.28498576832219946],[-1.1819304510355824,0.32216079535035413,0.09559708868996333,-0.8530852079376808,0.6578608856683168,-0.20568022271185463,-0.9457767425636406,-0.9390520588546338,0.9924278275598983,0.012020068805844799,-1.4807334905107403,-0.24668734180974733,-0.8279671421414527,0.37253166215606176,0.7685689126199858,-0.4325581045919386,-0.9003805977956653,-0.5902363227074654,0.49368288275919403,-0.14578631646578027,-1.555981864733025,-0.331994146442842,-0.054590462095709995,-1.1372132650777549,0.17279442551946855,-1.26240588154504,-1.5594108259361925,-2.3702992550133315,-0.5696657343949886,0.4047373871436542],[-1.8097652250690321,-0.3816729680962806,-1.2504143357269772,-2.1070421532830537,0.267025956680566,-1.7375009976812132,-1.6266213103018912,-2.530532199198472,-0.6340571368851996,0.3293600846784625,-0.964454686719098,0.3494070907959372,-1.1793110612565028,0.15993593593567867,-0.24870027853308904,-0.7149851234027023,-0.9966052113288391,-1.3255299625871821,0.6090562764255579,-0.5278047905380162,-0.42801199766913606,-0.3027411274203451,-0.7411222602108336,-2.2315563588160794,0.42585509188993975,-0.7034357970494477,-0.3167111814802889,-2.437784969647864,0.4297507873435769,0.9391032105647351],[-1.0001252265903091,-0.26778894170072265,-1.2199759710052864,0.00322570323589178,-0.04361473157205347,-1.055719403092808,-1.385439534404311,-1.2201379813887057,-1.0042984514380453,-0.328179842861218,-0.3153810907867657,-0.6144629206699488,-0.077980917366171,-0.8521559590915324,0.9319362868111515,0.9044935340077817,0.6481017028559023,-0.50133600258924,0.17102614206237526,-0.5505604579117342,-0.8435886139330679,0.2743928727107316,0.21368073923912653,-0.42932046593898016,-0.8009365924572591,0.4892329116288858,0.2705287064967513,-1.6396695579868261,-0.3245149638445966,0.10880120720783784],[-0.7122626277213489,0.20440572343907007,-1.3405637015370404,-0.8325959909259071,-0.7213302296575849,-1.54200392249217,-0.5428165612420983,-1.1818923325144581,-0.29453823550876357,0.853194917326828,-1.6132906811068335,0.46219272364027963,-1.5222479554866173,-0.7682750345521461,0.5613528760293127,-0.3296933801192139,-0.01808613891813376,-0.8329124084461108,0.7991735298076991,0.13922030527531942,-1.0687120375385315,-0.5779484133744209,-1.1811080147132624,-1.9578914515536068,-0.013130612947286895,-1.5788235633523366,-1.6669660786012266,-2.349790715856,0.3345734736813717,0.28895191541881576],[1.080168326905687,0.5793381905812849,1.4237793314305105,0.4093478052781843,0.16875373268680163,1.115458727848611,1.9125109303941341,1.3145879231907291,0.2271416871828229,-0.1836558171981376,0.3997432736542644,-0.02923986588623201,0.8489242009041781,-0.18276260653131493,-1.2211317615809987,0.888327330153136,-0.7855201002165861,0.9120514402612989,0.3465850618905583,-0.4567055795865213,1.5660846163569786,1.3736227614354348,1.028272801052404,1.02535771714727,-0.5012979931081771,1.5244342636232608,0.5751525896025934,3.0054358970224317,-0.18139531666708197,0.7530420060790027],[0.20940265963955873,-1.0628431637891214,-0.8908488584085718,-0.8225611592039463,0.5805594260220285,-1.0462340384363522,0.15802543366846716,-0.8420757353337854,-0.5543695837191902,-0.09893633406567495,-0.8001879614034058,-0.19283056344097482,-0.6399506133239646,0.34178749880453924,-0.4053781282008319,0.3876869130689901,-0.3809981766444708,0.780348280142329,0.6522280029263293,-0.719423667924285,-1.3024362699326788,-0.35606996424576975,-0.3532159306336919,-0.9201135409896769,0.8978616179163588,-0.19378216853734784,0.4183823498674884,-1.0421083938847095,-0.5150540543815781,0.36989162916402907],[-1.570894532646071,0.03417858927842149,-1.7364021029092738,-0.025953760842742445,-0.09610678926559447,0.23818235688412254,-1.8288771381668263,-0.9067369242719215,-0.9998198309189072,0.31571305157920015,-0.7860474860916307,0.6969304525581476,-1.0595433305323225,0.10134125462382734,0.5035725163308181,0.8023370412291073,-0.31304741518393714,-0.2793281239176543,-0.4958713553441088,1.1213954126762815,-1.4719858476144445,-0.2716174703729755,-1.854656233019851,-0.38023882576784246,0.6699907252595414,-1.6214566454755277,-1.7850468249406812,-1.2167348594865521,-0.6531517905005377,0.3945387554049935],[-1.525122333449753,-0.047208733557389575,0.33575746916246796,0.33047564879133373,0.37411137184105436,-1.0181459343473647,-0.7029199848201254,-0.6868135182901386,-0.28597305615650875,0.4811042224628488,-0.9812853752358409,0.7117783756572258,0.2936315892913931,-0.17605163486182349,-0.06520347691839164,0.8860862658298824,-0.5587386440603093,0.02961944018384564,0.9986714945190093,-0.8277793167254424,-0.24971317408325794,0.029374089979709094,-1.0199702272080082,-0.45006056032112685,-0.48029927471331757,-0.9104972198791341,-1.2838831173895124,-1.4558396970043468,-1.019383526190244,0.7984325833053336],[0.5674234208036639,0.1694006564926953,0.6815079437081693,-0.5456932246184087,-0.8428018306645177,0.5025740900143664,1.3436355471178931,-0.5172084320859694,0.9695868139728915,-0.2755888529699355,0.12062497481032536,0.9741781557053519,0.9816318274821373,0.5607088368376404,0.04660336684722745,0.5519585605431682,0.39789707370307625,0.23855690268140717,0.17934051281132699,0.9095549844269583,-0.49951893153782995,-0.8137746604299874,0.20369647949453482,1.0409776751282107,0.7071201292744415,0.7645466261608959,-0.10213270591907002,0.9600973132884411,0.6414217042914896,-0.3855239929152007],[0.3546316427071473,-0.7321454017861251,-0.8027942354689254,-0.7956740625550702,0.7428947133702293,-1.0210473178145765,-1.267449266314672,-1.070699937636405,0.5514613257767523,-0.048929126558638646,0.731500452903716,0.5059109334242182,-0.04733838111155585,-0.6089352647122142,-0.6980109085712655,0.35045409580014153,-0.950717305301383,0.38975555384340765,0.7053423767651338,-0.03740801142148923,-0.5949525800095213,0.2283984107694833,-0.928060097866472,0.14734497229919438,-0.48214808460886616,-0.7078232605394532,0.19910977237771557,-0.1973233693982783,0.42205795406257146,-0.59250162156087],[-0.6605699432162854,0.1128174521904179,0.31441958735403425,-1.3679026753835475,0.5669369964671439,-1.2528813740835991,-0.045492605490015395,-1.5299874511365765,-0.09489933948642457,-0.5770791120679584,-0.3010192250884485,0.9116575820332099,-0.6109464406240915,0.1148462188853477,-0.15409458613537613,0.7469756398757755,-0.9526298066172706,0.06517489911010413,-0.5004015102604095,0.8494953391766032,-1.127685088144074,0.35360862936410564,-0.24378626135925235,-0.8477685514801083,0.8500293169229104,-0.46423415719861233,-1.2958560028529855,-0.3984223513821217,-0.3530177301469528,-0.5193852830852737],[0.6688909918444078,0.7255552541241082,-1.0251063759295123,-0.9203279909864343,0.31489819484830783,0.1335716338478121,-0.027586792559162236,-1.0457046954202183,-0.3305616437209704,-0.12790775272801433,0.131036377483557,0.4324665359926168,-0.3938971246330404,-0.3111703397026604,0.19156149062802283,-0.5878503821092944,0.7391284855739988,-0.03478306812643019,0.764283117157519,0.8794858436131429,-0.6657057681643481,-0.9464863570666671,-0.7853858195357214,-0.2727656811515651,-0.1192631607951495,0.03964188452648766,-0.8614651220438596,0.3353480195588785,-0.7129186910529342,0.221062961200888],[-1.4230876505250685,0.40779726400475225,-0.2452205262793958,-1.6631218050009937,-0.055013913033062925,-1.1470886478266993,-0.13521590482412993,-0.6614588910439894,-0.5402580074507621,0.9976186336403612,0.21128308810581256,-0.53793764702245,-0.020105990876778716,-0.9276642705435312,0.7277218287847487,-0.6737359512671603,0.8344560723707093,-0.10455460708913879,-0.31693406771890237,0.7788696836735485,-0.6504995004063707,-0.8510267890044553,-0.08612136371557107,-1.732089267599303,-1.031850622937321,-0.43537255416282766,-0.7257485778874924,-1.9916814786264396,0.723751223031091,1.0405189353056434],[-0.8116876506918461,-0.8956484632192231,-1.1226971728257549,-1.1627049328467218,0.5433428228714569,-0.8711972671036227,-1.3619025426357678,-0.8264326571133859,1.0041239730929215,0.5307916785799567,-0.17795035182159155,-0.5527964677996275,0.04326925904136756,-0.5375754078157924,1.2211260410645797,-0.10124245211207732,-0.5601741557653084,0.7355609499423369,0.07527529327665904,0.8229855776696224,-1.2862871842618548,0.13347964006856552,-0.8117393301534046,-1.1507226231020498,0.7379232139396501,-0.584302569177414,-1.146092382994368,-0.868791523674817,0.24493881864091774,-0.18708005404309178]],[[0.4911954461710696,0.16756626165837774,1.4258052465660713,0.8325369626460446,0.4397036261855076,0.8098731774262966,-0.6247524274248984,1.570376658802034,0.4045159243873258,0.018057713987334457,-0.07151577852606028,0.4849241675879987,0.6169670368125239,0.47147655151043777,0.4819632212893291,1.1560322390558673],[-1.3435023396385042,-0.33445057853823745,-1.2558142777573529,-1.4171180063073556,-1.1064546997393634,-1.396003765674157,0.9959859185832994,-1.1554007721233983,-1.3036406262145985,-1.581034231241295,0.03260062802927424,0.1338116877880552,-1.8056880271631304,-1.5355216510942071,-2.1811270891048835,-1.0925170340510872],[0.1808736626642974,0.0019671972506973773,-0.30657177215641346,0.8780515293401383,-0.3896703470632448,-0.9167733362241403,0.4003809999772818,-0.5774484390223099,0.41859567301080347,-0.6510164908529248,-0.4024188873929521,0.20003451776293668,-0.739965315848359,-0.06951196496941497,-0.8188481516124374,-0.45663171660940766],[1.0394201563736734,-0.8427039412353383,1.3953297519068897,1.0673911571673795,-0.3538944061380961,0.18403031784024204,-0.7821740583549344,0.4995850071438159,1.1597261384330304,0.5986999461120772,-0.7068170568978346,-0.5892905442458818,-0.3639202633617967,-0.6965654699469672,0.9565876204101947,0.8529734448557136],[-0.7012133203744353,0.18878923142236298,-1.191275092883838,-0.28713285811890804,0.6688748099292168,-0.9915276586036031,0.18495874689874753,-1.3897637688861715,-0.23531617204660252,-0.19401969756958257,0.4517843071461009,-1.3580841151249305,-1.1071401756978878,-0.7783052979182632,-0.385478125644531,-1.384113182369584],[-1.0208823867223433,-0.6023311986923715,-1.5652796953781696,-1.5315439902609826,-1.0672622297887704,-0.9309530186960637,0.9154301761640589,0.059982130086986274,-0.6199350499684338,-0.912149808485394,-0.7323034141673509,-1.536839940494775,-1.5572085826132118,0.022888198468020725,-1.2266527327223302,-2.133003068783256],[0.2702666232870011,0.5293111262830839,1.1970783891469297,-0.21100435964847233,0.5247801336378848,0.8465616209763012,-0.8101161474439279,0.5441934145893482,1.0635384291297454,-0.12920077642515665,0.5815772622937337,0.6723442258535316,0.3557346262797903,0.32647235762866483,-0.09225038744824515,-0.12917694133213087],[-0.8622768941434381,-0.5735801777329131,0.192322226403736,-1.3111137245356008,-0.56955693365958,-0.07264718424063747,1.0956703930757734,-0.058957091403970666,-1.4884147906789857,-1.2703402875141172,0.9650472482166098,-0.2550369582668886,0.38763598730666804,0.1907335322935279,-0.9807115737928079,-1.3031624407954852]],[[2.465378781950894,-2.823448893787399,-0.17690855080000753,1.0745256638912846,-0.6475540693643378,-1.538370945368827,0.8769346500290855,-1.0705364768938674],[-1.5729326724671222,2.0192342790364752,0.45103680516420713,-0.9952776289978293,2.1739427815403314,2.6866190671743393,-1.2921473592970616,0.5080088746310006]]]}