{"bias":[[5.781510132893577e-07,5.781510132893577e-07,5.781510132893577e-07,5.781510132893577e-07,5.781510132893577e-07,5.781510132893577e-07,5.781510132893577e-07,5.781510132893577e-07,5.781510132893577e-07,5.781510132893577e-07,5.781510132893577e-07,5.781510132893577e-07,5.781510132893577e-07,5.781510132893577e-07,5.781510132893577e-07,5.781510132893577e-07],[-0.00513434875368565,-0.00513434875368565,-0.00513434875368565,-0.00513434875368565,-0.00513434875368565,-0.00513434875368565,-0.00513434875368565,-0.00513434875368565],[0.09351715279391906,-0.09351720535280318]],"hidden_activation":"sigmoid","learning_rate":0.1,"loss":"bce","output_activation":"softmax","weights":[[[0.00016485730745715183,8.587509118534965e-05,0.00017350014463345998,0.00017970831499687726,6.431889277519098e-05,0.00017974758046487323,0.00024468283469704946,0.00027520851727149705,5.990754642782423e-05,6.948765583193097e-06,0.00010139802903412921,-4.364711433413166e-06,9.552799541756165e-05,8.433734258913968e-05,-1.0108486177367042e-05,8.062944027160813e-05,3.8436877828336025e-05,8.855693815742928e-05,-1.5591905340310186e-07,1.922477132977936e-05,0.0001887134184942085,0.00010306074716465733,0.00019049087444497547,0.0001763624632449729,8.546475243257459e-05,0.0001735976170515046,0.00020614756020693992,0.00033176077040603834,7.592756587396828e-05,6.0832208090772244e-05],[0.00016485730745715183,8.587509118534965e-05,0.00017350014463345998,0.00017970831499687726,6.431889277519098e-05,0.00017974758046487323,0.00024468283469704946,0.00027520851727149705,5.990754642782423e-05,6.948765583193097e-06,0.00010139802903412921,-4.364711433413166e-06,9.552799541756165e-05,8.433734258913968e-05,-1.0108486177367042e-05,8.062944027160813e-05,3.8436877828336025e-05,8.855693815742928e-05,-1.5591905340310186e-07,1.922477132977936e-05,0.0001887134184942085,0.00010306074716465733,0.00019049087444497547,0.0001763624632449729,8.546475243257459e-05,0.0001735976170515046,0.00020614756020693992,0.00033176077040603834,7.592756587396828e-05,6.0832208090772244e-05],[0.00016485730745715183,8.587509118534965e-05,0.00017350014463345998,0.00017970831499687726,6.431889277519098e-05,0.00017974758046487323,0.00024468283469704946,0.00027520851727149705,5.990754642782423e-05,6.948765583193097e-06,0.00010139802903412921,-4.364711433413166e-06,9.552799541756165e-05,8.433734258913968e-05,-1.0108486177367042e-05,8.062944027160813e-05,3.8436877828336025e-05,8.855693815742928e-05,-1.5591905340310186e-07,1.922477132977936e-05,0.0001887134184942085,0.00010306074716465733,0.00019049087444497547,0.0001763624632449729,8.546475243257459e-05,0.0001735976170515046,0.00020614756020693992,0.00033176077040603834,7.592756587396828e-05,6.0832208090772244e-05],[0.00016485730745715183,8.587509118534965e-05,0.00017350014463345998,0.00017970831499687726,6.431889277519098e-05,0.00017974758046487323,0.00024468283469704946,0.00027520851727149705,5.990754642782423e-05,6.948765583193097e-06,0.00010139802903412921,-4.364711433413166e-06,9.552799541756165e-05,8.433734258913968e-05,-1.0108486177367042e-05,8.062944027160813e-05,3.8436877828336025e-05,8.855693815742928e-05,-1.5591905340310186e-07,1.922477132977936e-05,0.0001887134184942085,0.00010306074716465733,0.00019049087444497547,0.0001763624632449729,8.546475243257459e-05,0.0001735976170515046,0.00020614756020693992,0.00033176077040603834,7.592756587396828e-05,6.0832208090772244e-05],[0.00016485730745715183,8.587509118534965e-05,0.00017350014463345998,0.00017970831499687726,6.431889277519098e-05,0.00017974758046487323,0.00024468283469704946,0.00027520851727149705,5.990754642782423e-05,6.948765583193097e-06,0.00010139802903412921,-4.364711433413166e-06,9.552799541756165e-05,8.433734258913968e-05,-1.0108486177367042e-05,8.062944027160813e-05,3.8436877828336025e-05,8.855693815742928e-05,-1.5591905340310186e-07,1.922477132977936e-05,0.0001887134184942085,0.00010306074716465733,0.00019049087444497547,0.0001763624632449729,8.546475243257459e-05,0.0001735976170515046,0.00020614756020693992,0.00033176077040603834,7.592756587396828e-05,6.0832208090772244e-05],[0.00016485730745715183,8.587509118534965e-05,0.00017350014463345998,0.00017970831499687726,6.431889277519098e-05,0.00017974758046487323,0.00024468283469704946,0.00027520851727149705,5.990754642782423e-05,6.948765583193097e-06,0.00010139802903412921,-4.364711433413166e-06,9.552799541756165e-05,8.433734258913968e-05,-1.0108486177367042e-05,8.062944027160813e-05,3.8436877828336025e-05,8.855693815742928e-05,-1.5591905340310186e-07,1.922477132977936e-05,0.0001887134184942085,0.00010306074716465733,0.00019049087444497547,0.0001763624632449729,8.546475243257459e-05,0.0001735976170515046,0.00020614756020693992,0.00033176077040603834,7.592756587396828e-05,6.0832208090772244e-05],[0.00016485730745715183,8.587509118534965e-05,0.00017350014463345998,0.00017970831499687726,6.431889277519098e-05,0.00017974758046487323,0.00024468283469704946,0.00027520851727149705,5.990754642782423e-05,6.948765583193097e-06,0.00010139802903412921,-4.364711433413166e-06,9.552799541756165e-05,8.433734258913968e-05,-1.0108486177367042e-05,8.062944027160813e-05,3.8436877828336025e-05,8.855693815742928e-05,-1.5591905340310186e-07,1.922477132977936e-05,0.0001887134184942085,0.00010306074716465733,0.00019049087444497547,0.0001763624632449729,8.546475243257459e-05,0.0001735976170515046,0.00020614756020693992,0.00033176077040603834,7.592756587396828e-05,6.0832208090772244e-05],[0.00016485730745715183,8.587509118534965e-05,0.00017350014463345998,0.00017970831499687726,6.431889277519098e-05,0.00017974758046487323,0.00024468283469704946,0.00027520851727149705,5.990754642782423e-05,6.948765583193097e-06,0.00010139802903412921,-4.364711433413166e-06,9.552799541756165e-05,8.433734258913968e-05,-1.0108486177367042e-05,8.062944027160813e-05,3.8436877828336025e-05,8.855693815742928e-05,-1.5591905340310186e-07,1.922477132977936e-05,0.0001887134184942085,0.00010306074716465733,0.00019049087444497547,0.0001763624632449729,8.546475243257459e-05,0.0001735976170515046,0.00020614756020693992,0.00033176077040603834,7.592756587396828e-05,6.0832208090772244e-05],[0.00016485730745715183,8.587509118534965e-05,0.00017350014463345998,0.00017970831499687726,6.431889277519098e-05,0.00017974758046487323,0.00024468283469704946,0.00027520851727149705,5.990754642782423e-05,6.948765583193097e-06,0.00010139802903412921,-4.364711433413166e-06,9.552799541756165e-05,8.433734258913968e-05,-1.0108486177367042e-05,8.062944027160813e-05,3.8436877828336025e-05,8.855693815742928e-05,-1.5591905340310186e-07,1.922477132977936e-05,0.0001887134184942085,0.00010306074716465733,0.00019049087444497547,0.0001763624632449729,8.546475243257459e-05,0.0001735976170515046,0.00020614756020693992,0.00033176077040603834,7.592756587396828e-05,6.0832208090772244e-05],[0.00016485730745715183,8.587509118534965e-05,0.00017350014463345998,0.00017970831499687726,6.431889277519098e-05,0.00017974758046487323,0.00024468283469704946,0.00027520851727149705,5.990754642782423e-05,6.948765583193097e-06,0.00010139802903412921,-4.364711433413166e-06,9.552799541756165e-05,8.433734258913968e-05,-1.0108486177367042e-05,8.062944027160813e-05,3.8436877828336025e-05,8.855693815742928e-05,-1.5591905340310186e-07,1.922477132977936e-05,0.0001887134184942085,0.00010306074716465733,0.00019049087444497547,0.0001763624632449729,8.546475243257459e-05,0.0001735976170515046,0.00020614756020693992,0.00033176077040603834,7.592756587396828e-05,6.0832208090772244e-05],[0.00016485730745715183,8.587509118534965e-05,0.00017350014463345998,0.00017970831499687726,6.431889277519098e-05,0.00017974758046487323,0.00024468283469704946,0.00027520851727149705,5.990754642782423e-05,6.948765583193097e-06,0.00010139802903412921,-4.364711433413166e-06,9.552799541756165e-05,8.433734258913968e-05,-1.0108486177367042e-05,8.062944027160813e-05,3.8436877828336025e-05,8.855693815742928e-05,-1.5591905340310186e-07,1.922477132977936e-05,0.0001887134184942085,0.00010306074716465733,0.00019049087444497547,0.0001763624632449729,8.546475243257459e-05,0.0001735976170515046,0.00020614756020693992,0.00033176077040603834,7.592756587396828e-05,6.0832208090772244e-05],[0.00016485730745715183,8.587509118534965e-05,0.00017350014463345998,0.00017970831499687726,6.431889277519098e-05,0.00017974758046487323,0.00024468283469704946,0.00027520851727149705,5.990754642782423e-05,6.948765583193097e-06,0.00010139802903412921,-4.364711433413166e-06,9.552799541756165e-05,8.433734258913968e-05,-1.0108486177367042e-05,8.062944027160813e-05,3.8436877828336025e-05,8.855693815742928e-05,-1.5591905340310186e-07,1.922477132977936e-05,0.0001887134184942085,0.00010306074716465733,0.00019049087444497547,0.0001763624632449729,8.546475243257459e-05,0.0001735976170515046,0.00020614756020693992,0.00033176077040603834,7.592756587396828e-05,6.0832208090772244e-05],[0.00016485730745715183,8.587509118534965e-05,0.00017350014463345998,0.00017970831499687726,6.431889277519098e-05,0.00017974758046487323,0.00024468283469704946,0.00027520851727149705,5.990754642782423e-05,6.948765583193097e-06,0.00010139802903412921,-4.364711433413166e-06,9.552799541756165e-05,8.433734258913968e-05,-1.0108486177367042e-05,8.062944027160813e-05,3.8436877828336025e-05,8.855693815742928e-05,-1.5591905340310186e-07,1.922477132977936e-05,0.0001887134184942085,0.00010306074716465733,0.00019049087444497547,0.0001763624632449729,8.546475243257459e-05,0.0001735976170515046,0.00020614756020693992,0.00033176077040603834,7.592756587396828e-05,6.0832208090772244e-05],[0.00016485730745715183,8.587509118534965e-05,0.00017350014463345998,0.00017970831499687726,6.431889277519098e-05,0.00017974758046487323,0.00024468283469704946,0.00027520851727149705,5.990754642782423e-05,6.948765583193097e-06,0.00010139802903412921,-4.364711433413166e-06,9.552799541756165e-05,8.433734258913968e-05,-1.0108486177367042e-05,8.062944027160813e-05,3.8436877828336025e-05,8.855693815742928e-05,-1.5591905340310186e-07,1.922477132977936e-05,0.0001887134184942085,0.00010306074716465733,0.00019049087444497547,0.0001763624632449729,8.546475243257459e-05,0.0001735976170515046,0.00020614756020693992,0.00033176077040603834,7.592756587396828e-05,6.0832208090772244e-05],[0.00016485730745715183,8.587509118534965e-05,0.00017350014463345998,0.00017970831499687726,6.431889277519098e-05,0.00017974758046487323,0.00024468283469704946,0.00027520851727149705,5.990754642782423e-05,6.948765583193097e-06,0.00010139802903412921,-4.364711433413166e-06,9.552799541756165e-05,8.433734258913968e-05,-1.0108486177367042e-05,8.062944027160813e-05,3.8436877828336025e-05,8.855693815742928e-05,-1.5591905340310186e-07,1.922477132977936e-05,0.0001887134184942085,0.00010306074716465733,0.00019049087444497547,0.0001763624632449729,8.546475243257459e-05,0.0001735976170515046,0.00020614756020693992,0.00033176077040603834,7.592756587396828e-05,6.0832208090772244e-05],[0.00016485730745715183,8.587509118534965e-05,0.00017350014463345998,0.00017970831499687726,6.431889277519098e-05,0.00017974758046487323,0.00024468283469704946,0.00027520851727149705,5.990754642782423e-05,6.948765583193097e-06,0.00010139802903412921,-4.364711433413166e-06,9.552799541756165e-05,8.433734258913968e-05,-1.0108486177367042e-05,8.062944027160813e-05,3.8436877828336025e-05,8.855693815742928e-05,-1.5591905340310186e-07,1.922477132977936e-05,0.0001887134184942085,0.00010306074716465733,0.00019049087444497547,0.0001763624632449729,8.546475243257459e-05,0.0001735976170515046,0.00020614756020693992,0.00033176077040603834,7.592756587396828e-05,6.0832208090772244e-05]],[[-0.0025864866578312728,-0.0025864866578312728,-0.0025864866578312728,-0.0025864866578312728,-0.0025864866578312728,-0.0025864866578312728,-0.0025864866578312728,-0.0025864866578312728,-0.0025864866578312728,-0.0025864866578312728,-0.0025864866578312728,-0.0025864866578312728,-0.0025864866578312728,-0.0025864866578312728,-0.0025864866578312728,-0.0025864866578312728],[-0.0025864866578312728,-0.0025864866578312728,-0.0025864866578312728,-0.0025864866578312728,-0.0025864866578312728,-0.0025864866578312728,-0.0025864866578312728,-0.0025864866578312728,-0.0025864866578312728,-0.0025864866578312728,-0.0025864866578312728,-0.0025864866578312728,-0.0025864866578312728,-0.0025864866578312728,-0.0025864866578312728,-0.0025864866578312728],[-0.0025864866578312728,-0.0025864866578312728,-0.0025864866578312728,-0.0025864866578312728,-0.0025864866578312728,-0.0025864866578312728,-0.0025864866578312728,-0.0025864866578312728,-0.0025864866578312728,-0.0025864866578312728,-0.0025864866578312728,-0.0025864866578312728,-0.0025864866578312728,-0.0025864866578312728,-0.0025864866578312728,-0.0025864866578312728],[-0.0025864866578312728,-0.0025864866578312728,-0.0025864866578312728,-0.0025864866578312728,-0.0025864866578312728,-0.0025864866578312728,-0.0025864866578312728,-0.0025864866578312728,-0.0025864866578312728,-0.0025864866578312728,-0.0025864866578312728,-0.0025864866578312728,-0.0025864866578312728,-0.0025864866578312728,-0.0025864866578312728,-0.0025864866578312728],[-0.0025864866578312728,-0.0025864866578312728,-0.0025864866578312728,-0.0025864866578312728,-0.0025864866578312728,-0.0025864866578312728,-0.0025864866578312728,-0.0025864866578312728,-0.0025864866578312728,-0.0025864866578312728,-0.0025864866578312728,-0.0025864866578312728,-0.0025864866578312728,-0.0025864866578312728,-0.0025864866578312728,-0.0025864866578312728],[-0.0025864866578312728,-0.0025864866578312728,-0.0025864866578312728,-0.0025864866578312728,-0.0025864866578312728,-0.0025864866578312728,-0.0025864866578312728,-0.0025864866578312728,-0.0025864866578312728,-0.0025864866578312728,-0.0025864866578312728,-0.0025864866578312728,-0.0025864866578312728,-0.0025864866578312728,-0.0025864866578312728,-0.0025864866578312728],[-0.0025864866578312728,-0.0025864866578312728,-0.0025864866578312728,-0.0025864866578312728,-0.0025864866578312728,-0.0025864866578312728,-0.0025864866578312728,-0.0025864866578312728,-0.0025864866578312728,-0.0025864866578312728,-0.0025864866578312728,-0.0025864866578312728,-0.0025864866578312728,-0.0025864866578312728,-0.0025864866578312728,-0.0025864866578312728],[-0.0025864866578312728,-0.0025864866578312728,-0.0025864866578312728,-0.0025864866578312728,-0.0025864866578312728,-0.0025864866578312728,-0.0025864866578312728,-0.0025864866578312728,-0.0025864866578312728,-0.0025864866578312728,-0.0025864866578312728,-0.0025864866578312728,-0.0025864866578312728,-0.0025864866578312728,-0.0025864866578312728,-0.0025864866578312728]],[[0.046086467707326224,0.046086467707326224,0.046086467707326224,0.046086467707326224,0.046086467707326224,0.046086467707326224,0.046086467707326224,0.046086467707326224],[-0.046086482268460356,-0.046086482268460356,-0.046086482268460356,-0.046086482268460356,-0.046086482268460356,-0.046086482268460356,-0.046086482268460356,-0.046086482268460356]]]}